digraph Tree {
node [shape=box] ;
0 [label="age_group_90+ <= 0.5\nentropy = 0.751\nsamples = 7620\nvalue = [5982, 1638]"] ;
1 [label="age_group_80s <= 0.5\nentropy = 0.72\nsamples = 7417\nvalue = [5941, 1476]"] ;
0 -> 1 [labeldistance=2.5, labelangle=45, headlabel="True"] ;
2 [label="special_measure_Stage 2 Modified <= 0.5\nentropy = 0.69\nsamples = 7055\nvalue = [5754, 1301]"] ;
1 -> 2 ;
3 [label="is_resolved <= 0.5\nentropy = 0.639\nsamples = 4811\nvalue = [4032, 779]"] ;
2 -> 3 ;
4 [label="gender_MALE <= 0.5\nentropy = 0.977\nsamples = 39\nvalue = [23, 16]"] ;
3 -> 4 ;
5 [label="age_group_40s <= 0.5\nentropy = 0.977\nsamples = 17\nvalue = [7, 10]"] ;
4 -> 5 ;
6 [label="age_group_50s <= 0.5\nentropy = 0.954\nsamples = 16\nvalue = [6, 10]"] ;
5 -> 6 ;
7 [label="age_group_30s <= 0.5\nentropy = 0.918\nsamples = 15\nvalue = [5, 10]"] ;
6 -> 7 ;
8 [label="special_measure_Stage 2 <= 0.5\nentropy = 0.863\nsamples = 14\nvalue = [4, 10]"] ;
7 -> 8 ;
9 [label="is_unresolved <= 0.5\nentropy = 0.89\nsamples = 13\nvalue = [4, 9]"] ;
8 -> 9 ;
10 [label="special_measure_Stage 3 Modified <= 0.5\nentropy = 0.918\nsamples = 12\nvalue = [4, 8]"] ;
9 -> 10 ;
11 [label="age_group_70s <= 0.5\nentropy = 0.811\nsamples = 4\nvalue = [1, 3]"] ;
10 -> 11 ;
12 [label="entropy = 0.0\nsamples = 2\nvalue = [0, 2]"] ;
11 -> 12 ;
13 [label="entropy = 1.0\nsamples = 2\nvalue = [1, 1]"] ;
11 -> 13 ;
14 [label="age_group_70s <= 0.5\nentropy = 0.954\nsamples = 8\nvalue = [3, 5]"] ;
10 -> 14 ;
15 [label="entropy = 0.918\nsamples = 3\nvalue = [2, 1]"] ;
14 -> 15 ;
16 [label="entropy = 0.722\nsamples = 5\nvalue = [1, 4]"] ;
14 -> 16 ;
17 [label="entropy = 0.0\nsamples = 1\nvalue = [0, 1]"] ;
9 -> 17 ;
18 [label="entropy = 0.0\nsamples = 1\nvalue = [0, 1]"] ;
8 -> 18 ;
19 [label="entropy = 0.0\nsamples = 1\nvalue = [1, 0]"] ;
7 -> 19 ;
20 [label="entropy = 0.0\nsamples = 1\nvalue = [1, 0]"] ;
6 -> 20 ;
21 [label="entropy = 0.0\nsamples = 1\nvalue = [1, 0]"] ;
5 -> 21 ;
22 [label="is_fatal <= 0.5\nentropy = 0.845\nsamples = 22\nvalue = [16, 6]"] ;
4 -> 22 ;
23 [label="entropy = 0.0\nsamples = 1\nvalue = [0, 1]"] ;
22 -> 23 ;
24 [label="special_measure_Stage 2 <= 0.5\nentropy = 0.792\nsamples = 21\nvalue = [16, 5]"] ;
22 -> 24 ;
25 [label="age_group_40s <= 0.5\nentropy = 0.852\nsamples = 18\nvalue = [13, 5]"] ;
24 -> 25 ;
26 [label="age_group_70s <= 0.5\nentropy = 0.874\nsamples = 17\nvalue = [12, 5]"] ;
25 -> 26 ;
27 [label="special_measure_Stage 3 <= 0.5\nentropy = 0.954\nsamples = 8\nvalue = [5, 3]"] ;
26 -> 27 ;
28 [label="age_group_50s <= 0.5\nentropy = 1.0\nsamples = 4\nvalue = [2, 2]"] ;
27 -> 28 ;
29 [label="entropy = 0.918\nsamples = 3\nvalue = [2, 1]"] ;
28 -> 29 ;
30 [label="entropy = 0.0\nsamples = 1\nvalue = [0, 1]"] ;
28 -> 30 ;
31 [label="age_group_50s <= 0.5\nentropy = 0.811\nsamples = 4\nvalue = [3, 1]"] ;
27 -> 31 ;
32 [label="entropy = 0.918\nsamples = 3\nvalue = [2, 1]"] ;
31 -> 32 ;
33 [label="entropy = 0.0\nsamples = 1\nvalue = [1, 0]"] ;
31 -> 33 ;
34 [label="special_measure_Stage 3 Modified <= 0.5\nentropy = 0.764\nsamples = 9\nvalue = [7, 2]"] ;
26 -> 34 ;
35 [label="entropy = 0.971\nsamples = 5\nvalue = [3, 2]"] ;
34 -> 35 ;
36 [label="entropy = 0.0\nsamples = 4\nvalue = [4, 0]"] ;
34 -> 36 ;
37 [label="entropy = 0.0\nsamples = 1\nvalue = [1, 0]"] ;
25 -> 37 ;
38 [label="entropy = 0.0\nsamples = 3\nvalue = [3, 0]"] ;
24 -> 38 ;
39 [label="special_measure_Stage 3 Modified <= 0.5\nentropy = 0.634\nsamples = 4772\nvalue = [4009, 763]"] ;
3 -> 39 ;
40 [label="age_group_<20 <= 0.5\nentropy = 0.609\nsamples = 3360\nvalue = [2857, 503]"] ;
39 -> 40 ;
41 [label="age_group_50s <= 0.5\nentropy = 0.623\nsamples = 2892\nvalue = [2443, 449]"] ;
40 -> 41 ;
42 [label="age_group_60s <= 0.5\nentropy = 0.614\nsamples = 2398\nvalue = [2034, 364]"] ;
41 -> 42 ;
43 [label="gender_MALE <= 0.5\nentropy = 0.622\nsamples = 2010\nvalue = [1699, 311]"] ;
42 -> 43 ;
44 [label="age_group_40s <= 0.5\nentropy = 0.628\nsamples = 997\nvalue = [840, 157]"] ;
43 -> 44 ;
45 [label="special_measure_Stage 2 <= 0.5\nentropy = 0.615\nsamples = 737\nvalue = [625, 112]"] ;
44 -> 45 ;
46 [label="age_group_70s <= 0.5\nentropy = 0.624\nsamples = 597\nvalue = [504, 93]"] ;
45 -> 46 ;
47 [label="age_group_30s <= 0.5\nentropy = 0.607\nsamples = 510\nvalue = [434, 76]"] ;
46 -> 47 ;
48 [label="entropy = 0.614\nsamples = 277\nvalue = [235, 42]"] ;
47 -> 48 ;
49 [label="entropy = 0.6\nsamples = 233\nvalue = [199, 34]"] ;
47 -> 49 ;
50 [label="entropy = 0.713\nsamples = 87\nvalue = [70, 17]"] ;
46 -> 50 ;
51 [label="age_group_70s <= 0.5\nentropy = 0.573\nsamples = 140\nvalue = [121, 19]"] ;
45 -> 51 ;
52 [label="age_group_30s <= 0.5\nentropy = 0.621\nsamples = 123\nvalue = [104, 19]"] ;
51 -> 52 ;
53 [label="entropy = 0.602\nsamples = 68\nvalue = [58, 10]"] ;
52 -> 53 ;
54 [label="entropy = 0.643\nsamples = 55\nvalue = [46, 9]"] ;
52 -> 54 ;
55 [label="entropy = 0.0\nsamples = 17\nvalue = [17, 0]"] ;
51 -> 55 ;
56 [label="special_measure_Stage 2 <= 0.5\nentropy = 0.665\nsamples = 260\nvalue = [215, 45]"] ;
44 -> 56 ;
57 [label="entropy = 0.635\nsamples = 212\nvalue = [178, 34]"] ;
56 -> 57 ;
58 [label="entropy = 0.777\nsamples = 48\nvalue = [37, 11]"] ;
56 -> 58 ;
59 [label="age_group_40s <= 0.5\nentropy = 0.615\nsamples = 1013\nvalue = [859, 154]"] ;
43 -> 59 ;
60 [label="age_group_70s <= 0.5\nentropy = 0.631\nsamples = 762\nvalue = [641, 121]"] ;
59 -> 60 ;
61 [label="special_measure_Stage 2 <= 0.5\nentropy = 0.637\nsamples = 658\nvalue = [552, 106]"] ;
60 -> 61 ;
62 [label="age_group_30s <= 0.5\nentropy = 0.643\nsamples = 544\nvalue = [455, 89]"] ;
61 -> 62 ;
63 [label="entropy = 0.649\nsamples = 295\nvalue = [246, 49]"] ;
62 -> 63 ;
64 [label="entropy = 0.636\nsamples = 249\nvalue = [209, 40]"] ;
62 -> 64 ;
65 [label="age_group_30s <= 0.5\nentropy = 0.608\nsamples = 114\nvalue = [97, 17]"] ;
61 -> 65 ;
66 [label="entropy = 0.592\nsamples = 70\nvalue = [60, 10]"] ;
65 -> 66 ;
67 [label="entropy = 0.632\nsamples = 44\nvalue = [37, 7]"] ;
65 -> 67 ;
68 [label="special_measure_Stage 2 <= 0.5\nentropy = 0.595\nsamples = 104\nvalue = [89, 15]"] ;
60 -> 68 ;
69 [label="entropy = 0.592\nsamples = 91\nvalue = [78, 13]"] ;
68 -> 69 ;
70 [label="entropy = 0.619\nsamples = 13\nvalue = [11, 2]"] ;
68 -> 70 ;
71 [label="special_measure_Stage 2 <= 0.5\nentropy = 0.561\nsamples = 251\nvalue = [218, 33]"] ;
59 -> 71 ;
72 [label="entropy = 0.566\nsamples = 203\nvalue = [176, 27]"] ;
71 -> 72 ;
73 [label="entropy = 0.544\nsamples = 48\nvalue = [42, 6]"] ;
71 -> 73 ;
74 [label="special_measure_Stage 3 <= 0.5\nentropy = 0.575\nsamples = 388\nvalue = [335, 53]"] ;
42 -> 74 ;
75 [label="gender_FEMALE <= 0.5\nentropy = 0.477\nsamples = 78\nvalue = [70, 8]"] ;
74 -> 75 ;
76 [label="entropy = 0.482\nsamples = 48\nvalue = [43, 5]"] ;
75 -> 76 ;
77 [label="entropy = 0.469\nsamples = 30\nvalue = [27, 3]"] ;
75 -> 77 ;
78 [label="gender_FEMALE <= 0.5\nentropy = 0.598\nsamples = 310\nvalue = [265, 45]"] ;
74 -> 78 ;
79 [label="entropy = 0.589\nsamples = 155\nvalue = [133, 22]"] ;
78 -> 79 ;
80 [label="entropy = 0.606\nsamples = 155\nvalue = [132, 23]"] ;
78 -> 80 ;
81 [label="gender_MALE <= 0.5\nentropy = 0.662\nsamples = 494\nvalue = [409, 85]"] ;
41 -> 81 ;
82 [label="special_measure_Stage 3 <= 0.5\nentropy = 0.717\nsamples = 253\nvalue = [203, 50]"] ;
81 -> 82 ;
83 [label="entropy = 0.65\nsamples = 54\nvalue = [45, 9]"] ;
82 -> 83 ;
84 [label="entropy = 0.734\nsamples = 199\nvalue = [158, 41]"] ;
82 -> 84 ;
85 [label="special_measure_Stage 2 <= 0.5\nentropy = 0.598\nsamples = 241\nvalue = [206, 35]"] ;
81 -> 85 ;
86 [label="entropy = 0.572\nsamples = 192\nvalue = [166, 26]"] ;
85 -> 86 ;
87 [label="entropy = 0.688\nsamples = 49\nvalue = [40, 9]"] ;
85 -> 87 ;
88 [label="special_measure_Stage 3 <= 0.5\nentropy = 0.516\nsamples = 468\nvalue = [414, 54]"] ;
40 -> 88 ;
89 [label="gender_MALE <= 0.5\nentropy = 0.238\nsamples = 77\nvalue = [74, 3]"] ;
88 -> 89 ;
90 [label="entropy = 0.33\nsamples = 33\nvalue = [31, 2]"] ;
89 -> 90 ;
91 [label="entropy = 0.156\nsamples = 44\nvalue = [43, 1]"] ;
89 -> 91 ;
92 [label="gender_MALE <= 0.5\nentropy = 0.559\nsamples = 391\nvalue = [340, 51]"] ;
88 -> 92 ;
93 [label="entropy = 0.529\nsamples = 200\nvalue = [176, 24]"] ;
92 -> 93 ;
94 [label="entropy = 0.588\nsamples = 191\nvalue = [164, 27]"] ;
92 -> 94 ;
95 [label="gender_MALE <= 0.5\nentropy = 0.689\nsamples = 1412\nvalue = [1152, 260]"] ;
39 -> 95 ;
96 [label="age_group_40s <= 0.5\nentropy = 0.718\nsamples = 702\nvalue = [563, 139]"] ;
95 -> 96 ;
97 [label="age_group_<20 <= 0.5\nentropy = 0.703\nsamples = 592\nvalue = [479, 113]"] ;
96 -> 97 ;
98 [label="age_group_20s <= 0.5\nentropy = 0.689\nsamples = 478\nvalue = [390, 88]"] ;
97 -> 98 ;
99 [label="age_group_50s <= 0.5\nentropy = 0.676\nsamples = 365\nvalue = [300, 65]"] ;
98 -> 99 ;
100 [label="age_group_70s <= 0.5\nentropy = 0.659\nsamples = 246\nvalue = [204, 42]"] ;
99 -> 100 ;
101 [label="age_group_30s <= 0.5\nentropy = 0.646\nsamples = 194\nvalue = [162, 32]"] ;
100 -> 101 ;
102 [label="entropy = 0.639\nsamples = 74\nvalue = [62, 12]"] ;
101 -> 102 ;
103 [label="entropy = 0.65\nsamples = 120\nvalue = [100, 20]"] ;
101 -> 103 ;
104 [label="entropy = 0.706\nsamples = 52\nvalue = [42, 10]"] ;
100 -> 104 ;
105 [label="entropy = 0.708\nsamples = 119\nvalue = [96, 23]"] ;
99 -> 105 ;
106 [label="entropy = 0.729\nsamples = 113\nvalue = [90, 23]"] ;
98 -> 106 ;
107 [label="entropy = 0.759\nsamples = 114\nvalue = [89, 25]"] ;
97 -> 107 ;
108 [label="entropy = 0.789\nsamples = 110\nvalue = [84, 26]"] ;
96 -> 108 ;
109 [label="age_group_30s <= 0.5\nentropy = 0.659\nsamples = 710\nvalue = [589, 121]"] ;
95 -> 109 ;
110 [label="age_group_20s <= 0.5\nentropy = 0.672\nsamples = 596\nvalue = [491, 105]"] ;
109 -> 110 ;
111 [label="age_group_60s <= 0.5\nentropy = 0.689\nsamples = 483\nvalue = [394, 89]"] ;
110 -> 111 ;
112 [label="age_group_70s <= 0.5\nentropy = 0.705\nsamples = 391\nvalue = [316, 75]"] ;
111 -> 112 ;
113 [label="age_group_40s <= 0.5\nentropy = 0.698\nsamples = 350\nvalue = [284, 66]"] ;
112 -> 113 ;
114 [label="age_group_50s <= 0.5\nentropy = 0.706\nsamples = 224\nvalue = [181, 43]"] ;
113 -> 114 ;
115 [label="entropy = 0.701\nsamples = 116\nvalue = [94, 22]"] ;
114 -> 115 ;
116 [label="entropy = 0.711\nsamples = 108\nvalue = [87, 21]"] ;
114 -> 116 ;
117 [label="entropy = 0.686\nsamples = 126\nvalue = [103, 23]"] ;
113 -> 117 ;
118 [label="entropy = 0.759\nsamples = 41\nvalue = [32, 9]"] ;
112 -> 118 ;
119 [label="entropy = 0.615\nsamples = 92\nvalue = [78, 14]"] ;
111 -> 119 ;
120 [label="entropy = 0.588\nsamples = 113\nvalue = [97, 16]"] ;
110 -> 120 ;
121 [label="entropy = 0.585\nsamples = 114\nvalue = [98, 16]"] ;
109 -> 121 ;
122 [label="is_resolved <= 0.5\nentropy = 0.783\nsamples = 2244\nvalue = [1722, 522]"] ;
2 -> 122 ;
123 [label="gender_FEMALE <= 0.5\nentropy = 0.931\nsamples = 26\nvalue = [9, 17]"] ;
122 -> 123 ;
124 [label="age_group_50s <= 0.5\nentropy = 0.971\nsamples = 20\nvalue = [8, 12]"] ;
123 -> 124 ;
125 [label="age_group_70s <= 0.5\nentropy = 0.954\nsamples = 16\nvalue = [6, 10]"] ;
124 -> 125 ;
126 [label="entropy = 0.918\nsamples = 6\nvalue = [2, 4]"] ;
125 -> 126 ;
127 [label="entropy = 0.971\nsamples = 10\nvalue = [4, 6]"] ;
125 -> 127 ;
128 [label="entropy = 1.0\nsamples = 4\nvalue = [2, 2]"] ;
124 -> 128 ;
129 [label="age_group_70s <= 0.5\nentropy = 0.65\nsamples = 6\nvalue = [1, 5]"] ;
123 -> 129 ;
130 [label="entropy = 0.0\nsamples = 3\nvalue = [0, 3]"] ;
129 -> 130 ;
131 [label="entropy = 0.918\nsamples = 3\nvalue = [1, 2]"] ;
129 -> 131 ;
132 [label="age_group_20s <= 0.5\nentropy = 0.774\nsamples = 2218\nvalue = [1713, 505]"] ;
122 -> 132 ;
133 [label="gender_FEMALE <= 0.5\nentropy = 0.794\nsamples = 1852\nvalue = [1409, 443]"] ;
132 -> 133 ;
134 [label="age_group_60s <= 0.5\nentropy = 0.748\nsamples = 933\nvalue = [734, 199]"] ;
133 -> 134 ;
135 [label="age_group_50s <= 0.5\nentropy = 0.739\nsamples = 795\nvalue = [629, 166]"] ;
134 -> 135 ;
136 [label="age_group_<20 <= 0.5\nentropy = 0.746\nsamples = 598\nvalue = [471, 127]"] ;
135 -> 136 ;
137 [label="age_group_70s <= 0.5\nentropy = 0.753\nsamples = 435\nvalue = [341, 94]"] ;
136 -> 137 ;
138 [label="age_group_40s <= 0.5\nentropy = 0.76\nsamples = 341\nvalue = [266, 75]"] ;
137 -> 138 ;
139 [label="entropy = 0.759\nsamples = 164\nvalue = [128, 36]"] ;
138 -> 139 ;
140 [label="entropy = 0.761\nsamples = 177\nvalue = [138, 39]"] ;
138 -> 140 ;
141 [label="entropy = 0.726\nsamples = 94\nvalue = [75, 19]"] ;
137 -> 141 ;
142 [label="entropy = 0.727\nsamples = 163\nvalue = [130, 33]"] ;
136 -> 142 ;
143 [label="entropy = 0.718\nsamples = 197\nvalue = [158, 39]"] ;
135 -> 143 ;
144 [label="entropy = 0.794\nsamples = 138\nvalue = [105, 33]"] ;
134 -> 144 ;
145 [label="age_group_<20 <= 0.5\nentropy = 0.835\nsamples = 919\nvalue = [675, 244]"] ;
133 -> 145 ;
146 [label="age_group_30s <= 0.5\nentropy = 0.846\nsamples = 783\nvalue = [569, 214]"] ;
145 -> 146 ;
147 [label="age_group_60s <= 0.5\nentropy = 0.858\nsamples = 599\nvalue = [430, 169]"] ;
146 -> 147 ;
148 [label="age_group_40s <= 0.5\nentropy = 0.867\nsamples = 454\nvalue = [323, 131]"] ;
147 -> 148 ;
149 [label="age_group_70s <= 0.5\nentropy = 0.875\nsamples = 271\nvalue = [191, 80]"] ;
148 -> 149 ;
150 [label="entropy = 0.879\nsamples = 178\nvalue = [125, 53]"] ;
149 -> 150 ;
151 [label="entropy = 0.869\nsamples = 93\nvalue = [66, 27]"] ;
149 -> 151 ;
152 [label="entropy = 0.854\nsamples = 183\nvalue = [132, 51]"] ;
148 -> 152 ;
153 [label="entropy = 0.83\nsamples = 145\nvalue = [107, 38]"] ;
147 -> 153 ;
154 [label="entropy = 0.803\nsamples = 184\nvalue = [139, 45]"] ;
146 -> 154 ;
155 [label="entropy = 0.761\nsamples = 136\nvalue = [106, 30]"] ;
145 -> 155 ;
156 [label="gender_FEMALE <= 0.5\nentropy = 0.656\nsamples = 366\nvalue = [304, 62]"] ;
132 -> 156 ;
157 [label="entropy = 0.629\nsamples = 184\nvalue = [155, 29]"] ;
156 -> 157 ;
158 [label="entropy = 0.683\nsamples = 182\nvalue = [149, 33]"] ;
156 -> 158 ;
159 [label="is_resolved <= 0.5\nentropy = 0.999\nsamples = 362\nvalue = [187, 175]"] ;
1 -> 159 ;
160 [label="special_measure_Stage 3 <= 0.5\nentropy = 0.918\nsamples = 69\nvalue = [23, 46]"] ;
159 -> 160 ;
161 [label="special_measure_Stage 3 Modified <= 0.5\nentropy = 0.819\nsamples = 51\nvalue = [13, 38]"] ;
160 -> 161 ;
162 [label="gender_FEMALE <= 0.5\nentropy = 0.722\nsamples = 35\nvalue = [7, 28]"] ;
161 -> 162 ;
163 [label="special_measure_Stage 2 <= 0.5\nentropy = 0.811\nsamples = 20\nvalue = [5, 15]"] ;
162 -> 163 ;
164 [label="entropy = 0.787\nsamples = 17\nvalue = [4, 13]"] ;
163 -> 164 ;
165 [label="entropy = 0.918\nsamples = 3\nvalue = [1, 2]"] ;
163 -> 165 ;
166 [label="special_measure_Stage 2 Modified <= 0.5\nentropy = 0.567\nsamples = 15\nvalue = [2, 13]"] ;
162 -> 166 ;
167 [label="entropy = 0.0\nsamples = 1\nvalue = [0, 1]"] ;
166 -> 167 ;
168 [label="entropy = 0.592\nsamples = 14\nvalue = [2, 12]"] ;
166 -> 168 ;
169 [label="gender_MALE <= 0.5\nentropy = 0.954\nsamples = 16\nvalue = [6, 10]"] ;
161 -> 169 ;
170 [label="entropy = 1.0\nsamples = 6\nvalue = [3, 3]"] ;
169 -> 170 ;
171 [label="entropy = 0.881\nsamples = 10\nvalue = [3, 7]"] ;
169 -> 171 ;
172 [label="gender_MALE <= 0.5\nentropy = 0.991\nsamples = 18\nvalue = [10, 8]"] ;
160 -> 172 ;
173 [label="entropy = 1.0\nsamples = 10\nvalue = [5, 5]"] ;
172 -> 173 ;
174 [label="entropy = 0.954\nsamples = 8\nvalue = [5, 3]"] ;
172 -> 174 ;
175 [label="special_measure_Stage 2 Modified <= 0.5\nentropy = 0.99\nsamples = 293\nvalue = [164, 129]"] ;
159 -> 175 ;
176 [label="special_measure_Stage 3 Modified <= 0.5\nentropy = 0.95\nsamples = 157\nvalue = [99, 58]"] ;
175 -> 176 ;
177 [label="special_measure_Stage 2 <= 0.5\nentropy = 0.903\nsamples = 91\nvalue = [62, 29]"] ;
176 -> 177 ;
178 [label="gender_MALE <= 0.5\nentropy = 0.914\nsamples = 79\nvalue = [53, 26]"] ;
177 -> 178 ;
179 [label="entropy = 0.893\nsamples = 42\nvalue = [29, 13]"] ;
178 -> 179 ;
180 [label="entropy = 0.935\nsamples = 37\nvalue = [24, 13]"] ;
178 -> 180 ;
181 [label="gender_MALE <= 0.5\nentropy = 0.811\nsamples = 12\nvalue = [9, 3]"] ;
177 -> 181 ;
182 [label="entropy = 0.863\nsamples = 7\nvalue = [5, 2]"] ;
181 -> 182 ;
183 [label="entropy = 0.722\nsamples = 5\nvalue = [4, 1]"] ;
181 -> 183 ;
184 [label="gender_FEMALE <= 0.5\nentropy = 0.989\nsamples = 66\nvalue = [37, 29]"] ;
176 -> 184 ;
185 [label="entropy = 0.954\nsamples = 24\nvalue = [15, 9]"] ;
184 -> 185 ;
186 [label="entropy = 0.998\nsamples = 42\nvalue = [22, 20]"] ;
184 -> 186 ;
187 [label="gender_FEMALE <= 0.5\nentropy = 0.999\nsamples = 136\nvalue = [65, 71]"] ;
175 -> 187 ;
188 [label="entropy = 0.996\nsamples = 56\nvalue = [30, 26]"] ;
187 -> 188 ;
189 [label="entropy = 0.989\nsamples = 80\nvalue = [35, 45]"] ;
187 -> 189 ;
190 [label="is_fatal <= 0.5\nentropy = 0.726\nsamples = 203\nvalue = [41, 162]"] ;
0 -> 190 [labeldistance=2.5, labelangle=-45, headlabel="False"] ;
191 [label="gender_FEMALE <= 0.5\nentropy = 0.814\nsamples = 135\nvalue = [34, 101]"] ;
190 -> 191 ;
192 [label="special_measure_Stage 2 Modified <= 0.5\nentropy = 0.918\nsamples = 48\nvalue = [16, 32]"] ;
191 -> 192 ;
193 [label="special_measure_Stage 3 <= 0.5\nentropy = 0.993\nsamples = 20\nvalue = [11, 9]"] ;
192 -> 193 ;
194 [label="special_measure_Stage 3 Modified <= 0.5\nentropy = 1.0\nsamples = 16\nvalue = [8, 8]"] ;
193 -> 194 ;
195 [label="entropy = 0.971\nsamples = 5\nvalue = [2, 3]"] ;
194 -> 195 ;
196 [label="entropy = 0.994\nsamples = 11\nvalue = [6, 5]"] ;
194 -> 196 ;
197 [label="entropy = 0.811\nsamples = 4\nvalue = [3, 1]"] ;
193 -> 197 ;
198 [label="entropy = 0.677\nsamples = 28\nvalue = [5, 23]"] ;
192 -> 198 ;
199 [label="special_measure_Stage 3 Modified <= 0.5\nentropy = 0.736\nsamples = 87\nvalue = [18, 69]"] ;
191 -> 199 ;
200 [label="special_measure_Stage 3 <= 0.5\nentropy = 0.811\nsamples = 68\nvalue = [17, 51]"] ;
199 -> 200 ;
201 [label="special_measure_Stage 2 <= 0.5\nentropy = 0.819\nsamples = 51\nvalue = [13, 38]"] ;
200 -> 201 ;
202 [label="entropy = 0.82\nsamples = 47\nvalue = [12, 35]"] ;
201 -> 202 ;
203 [label="entropy = 0.811\nsamples = 4\nvalue = [1, 3]"] ;
201 -> 203 ;
204 [label="entropy = 0.787\nsamples = 17\nvalue = [4, 13]"] ;
200 -> 204 ;
205 [label="entropy = 0.297\nsamples = 19\nvalue = [1, 18]"] ;
199 -> 205 ;
206 [label="special_measure_Stage 2 Modified <= 0.5\nentropy = 0.478\nsamples = 68\nvalue = [7, 61]"] ;
190 -> 206 ;
207 [label="gender_FEMALE <= 0.5\nentropy = 0.677\nsamples = 28\nvalue = [5, 23]"] ;
206 -> 207 ;
208 [label="special_measure_Stage 3 Modified <= 0.5\nentropy = 0.845\nsamples = 11\nvalue = [3, 8]"] ;
207 -> 208 ;
209 [label="special_measure_Stage 2 <= 0.5\nentropy = 0.65\nsamples = 6\nvalue = [1, 5]"] ;
208 -> 209 ;
210 [label="entropy = 0.722\nsamples = 5\nvalue = [1, 4]"] ;
209 -> 210 ;
211 [label="entropy = 0.0\nsamples = 1\nvalue = [0, 1]"] ;
209 -> 211 ;
212 [label="entropy = 0.971\nsamples = 5\nvalue = [2, 3]"] ;
208 -> 212 ;
213 [label="special_measure_Stage 3 Modified <= 0.5\nentropy = 0.523\nsamples = 17\nvalue = [2, 15]"] ;
207 -> 213 ;
214 [label="special_measure_Stage 3 <= 0.5\nentropy = 0.811\nsamples = 8\nvalue = [2, 6]"] ;
213 -> 214 ;
215 [label="entropy = 0.918\nsamples = 3\nvalue = [1, 2]"] ;
214 -> 215 ;
216 [label="entropy = 0.722\nsamples = 5\nvalue = [1, 4]"] ;
214 -> 216 ;
217 [label="entropy = 0.0\nsamples = 9\nvalue = [0, 9]"] ;
213 -> 217 ;
218 [label="gender_MALE <= 0.5\nentropy = 0.286\nsamples = 40\nvalue = [2, 38]"] ;
206 -> 218 ;
219 [label="entropy = 0.258\nsamples = 23\nvalue = [1, 22]"] ;
218 -> 219 ;
220 [label="entropy = 0.323\nsamples = 17\nvalue = [1, 16]"] ;
218 -> 220 ;
}